digraph Tree {
node [shape=box] ;
0 [label="X[13] <= -0.647\ngini = 0.458\nsamples = 1501\nvalue = [533, 968]"] ;
1 [label="X[9] <= -0.47\ngini = 0.325\nsamples = 499\nvalue = [397, 102]"] ;
0 -> 1 [labeldistance=2.5, labelangle=45, headlabel="True"] ;
2 [label="X[13] <= -1.085\ngini = 0.199\nsamples = 437\nvalue = [388, 49]"] ;
1 -> 2 ;
3 [label="X[15] <= -0.197\ngini = 0.088\nsamples = 326\nvalue = [311, 15]"] ;
2 -> 3 ;
4 [label="X[17] <= 0.074\ngini = 0.066\nsamples = 321\nvalue = [310, 11]"] ;
3 -> 4 ;
5 [label="X[11] <= 2.161\ngini = 0.056\nsamples = 315\nvalue = [306, 9]"] ;
4 -> 5 ;
6 [label="X[5] <= 2.49\ngini = 0.05\nsamples = 313\nvalue = [305, 8]"] ;
5 -> 6 ;
7 [label="X[1] <= 2.139\ngini = 0.044\nsamples = 310\nvalue = [303, 7]"] ;
6 -> 7 ;
8 [label="X[3] <= -2.157\ngini = 0.038\nsamples = 307\nvalue = [301, 6]"] ;
7 -> 8 ;
9 [label="X[5] <= 1.113\ngini = 0.26\nsamples = 13\nvalue = [11, 2]"] ;
8 -> 9 ;
10 [label="X[6] <= -2.068\ngini = 0.153\nsamples = 12\nvalue = [11, 1]"] ;
9 -> 10 ;
11 [label="X[21] <= -0.113\ngini = 0.5\nsamples = 2\nvalue = [1, 1]"] ;
10 -> 11 ;
12 [label="gini = 0.0\nsamples = 1\nvalue = [0, 1]"] ;
11 -> 12 ;
13 [label="gini = 0.0\nsamples = 1\nvalue = [1, 0]"] ;
11 -> 13 ;
14 [label="gini = 0.0\nsamples = 10\nvalue = [10, 0]"] ;
10 -> 14 ;
15 [label="gini = 0.0\nsamples = 1\nvalue = [0, 1]"] ;
9 -> 15 ;
16 [label="X[7] <= 1.643\ngini = 0.027\nsamples = 294\nvalue = [290, 4]"] ;
8 -> 16 ;
17 [label="X[3] <= 1.347\ngini = 0.02\nsamples = 290\nvalue = [287, 3]"] ;
16 -> 17 ;
18 [label="X[4] <= -0.685\ngini = 0.014\nsamples = 283\nvalue = [281, 2]"] ;
17 -> 18 ;
19 [label="X[8] <= 0.649\ngini = 0.124\nsamples = 30\nvalue = [28, 2]"] ;
18 -> 19 ;
20 [label="gini = 0.0\nsamples = 25\nvalue = [25, 0]"] ;
19 -> 20 ;
21 [label="X[7] <= 0.293\ngini = 0.48\nsamples = 5\nvalue = [3, 2]"] ;
19 -> 21 ;
22 [label="gini = 0.0\nsamples = 2\nvalue = [0, 2]"] ;
21 -> 22 ;
23 [label="gini = 0.0\nsamples = 3\nvalue = [3, 0]"] ;
21 -> 23 ;
24 [label="gini = 0.0\nsamples = 253\nvalue = [253, 0]"] ;
18 -> 24 ;
25 [label="X[2] <= 0.247\ngini = 0.245\nsamples = 7\nvalue = [6, 1]"] ;
17 -> 25 ;
26 [label="gini = 0.0\nsamples = 1\nvalue = [0, 1]"] ;
25 -> 26 ;
27 [label="gini = 0.0\nsamples = 6\nvalue = [6, 0]"] ;
25 -> 27 ;
28 [label="X[4] <= 0.332\ngini = 0.375\nsamples = 4\nvalue = [3, 1]"] ;
16 -> 28 ;
29 [label="gini = 0.0\nsamples = 3\nvalue = [3, 0]"] ;
28 -> 29 ;
30 [label="gini = 0.0\nsamples = 1\nvalue = [0, 1]"] ;
28 -> 30 ;
31 [label="X[8] <= -0.857\ngini = 0.444\nsamples = 3\nvalue = [2, 1]"] ;
7 -> 31 ;
32 [label="gini = 0.0\nsamples = 1\nvalue = [0, 1]"] ;
31 -> 32 ;
33 [label="gini = 0.0\nsamples = 2\nvalue = [2, 0]"] ;
31 -> 33 ;
34 [label="X[2] <= -0.212\ngini = 0.444\nsamples = 3\nvalue = [2, 1]"] ;
6 -> 34 ;
35 [label="gini = 0.0\nsamples = 1\nvalue = [0, 1]"] ;
34 -> 35 ;
36 [label="gini = 0.0\nsamples = 2\nvalue = [2, 0]"] ;
34 -> 36 ;
37 [label="X[21] <= -0.113\ngini = 0.5\nsamples = 2\nvalue = [1, 1]"] ;
5 -> 37 ;
38 [label="gini = 0.0\nsamples = 1\nvalue = [0, 1]"] ;
37 -> 38 ;
39 [label="gini = 0.0\nsamples = 1\nvalue = [1, 0]"] ;
37 -> 39 ;
40 [label="X[20] <= 0.324\ngini = 0.444\nsamples = 6\nvalue = [4, 2]"] ;
4 -> 40 ;
41 [label="gini = 0.0\nsamples = 3\nvalue = [3, 0]"] ;
40 -> 41 ;
42 [label="X[2] <= 0.483\ngini = 0.444\nsamples = 3\nvalue = [1, 2]"] ;
40 -> 42 ;
43 [label="gini = 0.0\nsamples = 2\nvalue = [0, 2]"] ;
42 -> 43 ;
44 [label="gini = 0.0\nsamples = 1\nvalue = [1, 0]"] ;
42 -> 44 ;
45 [label="X[5] <= 0.242\ngini = 0.32\nsamples = 5\nvalue = [1, 4]"] ;
3 -> 45 ;
46 [label="gini = 0.0\nsamples = 4\nvalue = [0, 4]"] ;
45 -> 46 ;
47 [label="gini = 0.0\nsamples = 1\nvalue = [1, 0]"] ;
45 -> 47 ;
48 [label="X[6] <= 0.734\ngini = 0.425\nsamples = 111\nvalue = [77, 34]"] ;
2 -> 48 ;
49 [label="X[2] <= -0.751\ngini = 0.375\nsamples = 96\nvalue = [72, 24]"] ;
48 -> 49 ;
50 [label="X[4] <= -0.085\ngini = 0.49\nsamples = 14\nvalue = [6, 8]"] ;
49 -> 50 ;
51 [label="gini = 0.0\nsamples = 4\nvalue = [0, 4]"] ;
50 -> 51 ;
52 [label="X[2] <= -1.444\ngini = 0.48\nsamples = 10\nvalue = [6, 4]"] ;
50 -> 52 ;
53 [label="X[8] <= 0.649\ngini = 0.32\nsamples = 5\nvalue = [1, 4]"] ;
52 -> 53 ;
54 [label="gini = 0.0\nsamples = 4\nvalue = [0, 4]"] ;
53 -> 54 ;
55 [label="gini = 0.0\nsamples = 1\nvalue = [1, 0]"] ;
53 -> 55 ;
56 [label="gini = 0.0\nsamples = 5\nvalue = [5, 0]"] ;
52 -> 56 ;
57 [label="X[5] <= 1.302\ngini = 0.314\nsamples = 82\nvalue = [66, 16]"] ;
49 -> 57 ;
58 [label="X[15] <= -0.197\ngini = 0.239\nsamples = 65\nvalue = [56, 9]"] ;
57 -> 58 ;
59 [label="X[20] <= 0.324\ngini = 0.219\nsamples = 64\nvalue = [56, 8]"] ;
58 -> 59 ;
60 [label="gini = 0.0\nsamples = 21\nvalue = [21, 0]"] ;
59 -> 60 ;
61 [label="X[4] <= -1.213\ngini = 0.303\nsamples = 43\nvalue = [35, 8]"] ;
59 -> 61 ;
62 [label="gini = 0.0\nsamples = 1\nvalue = [0, 1]"] ;
61 -> 62 ;
63 [label="X[8] <= -0.857\ngini = 0.278\nsamples = 42\nvalue = [35, 7]"] ;
61 -> 63 ;
64 [label="X[2] <= 0.086\ngini = 0.5\nsamples = 4\nvalue = [2, 2]"] ;
63 -> 64 ;
65 [label="gini = 0.0\nsamples = 2\nvalue = [0, 2]"] ;
64 -> 65 ;
66 [label="gini = 0.0\nsamples = 2\nvalue = [2, 0]"] ;
64 -> 66 ;
67 [label="X[8] <= 0.649\ngini = 0.229\nsamples = 38\nvalue = [33, 5]"] ;
63 -> 67 ;
68 [label="X[12] <= 0.014\ngini = 0.133\nsamples = 28\nvalue = [26, 2]"] ;
67 -> 68 ;
69 [label="X[1] <= 0.183\ngini = 0.5\nsamples = 2\nvalue = [1, 1]"] ;
68 -> 69 ;
70 [label="gini = 0.0\nsamples = 1\nvalue = [0, 1]"] ;
69 -> 70 ;
71 [label="gini = 0.0\nsamples = 1\nvalue = [1, 0]"] ;
69 -> 71 ;
72 [label="X[5] <= 1.04\ngini = 0.074\nsamples = 26\nvalue = [25, 1]"] ;
68 -> 72 ;
73 [label="gini = 0.0\nsamples = 21\nvalue = [21, 0]"] ;
72 -> 73 ;
74 [label="X[22] <= -0.197\ngini = 0.32\nsamples = 5\nvalue = [4, 1]"] ;
72 -> 74 ;
75 [label="gini = 0.0\nsamples = 1\nvalue = [0, 1]"] ;
74 -> 75 ;
76 [label="gini = 0.0\nsamples = 4\nvalue = [4, 0]"] ;
74 -> 76 ;
77 [label="X[3] <= -0.517\ngini = 0.42\nsamples = 10\nvalue = [7, 3]"] ;
67 -> 77 ;
78 [label="X[1] <= -0.004\ngini = 0.48\nsamples = 5\nvalue = [2, 3]"] ;
77 -> 78 ;
79 [label="X[4] <= 0.395\ngini = 0.444\nsamples = 3\nvalue = [2, 1]"] ;
78 -> 79 ;
80 [label="gini = 0.0\nsamples = 1\nvalue = [0, 1]"] ;
79 -> 80 ;
81 [label="gini = 0.0\nsamples = 2\nvalue = [2, 0]"] ;
79 -> 81 ;
82 [label="gini = 0.0\nsamples = 2\nvalue = [0, 2]"] ;
78 -> 82 ;
83 [label="gini = 0.0\nsamples = 5\nvalue = [5, 0]"] ;
77 -> 83 ;
84 [label="gini = 0.0\nsamples = 1\nvalue = [0, 1]"] ;
58 -> 84 ;
85 [label="X[3] <= -0.919\ngini = 0.484\nsamples = 17\nvalue = [10, 7]"] ;
57 -> 85 ;
86 [label="gini = 0.0\nsamples = 3\nvalue = [0, 3]"] ;
85 -> 86 ;
87 [label="X[1] <= -0.297\ngini = 0.408\nsamples = 14\nvalue = [10, 4]"] ;
85 -> 87 ;
88 [label="gini = 0.0\nsamples = 8\nvalue = [8, 0]"] ;
87 -> 88 ;
89 [label="X[3] <= -0.085\ngini = 0.444\nsamples = 6\nvalue = [2, 4]"] ;
87 -> 89 ;
90 [label="X[18] <= -0.002\ngini = 0.444\nsamples = 3\nvalue = [2, 1]"] ;
89 -> 90 ;
91 [label="gini = 0.0\nsamples = 2\nvalue = [2, 0]"] ;
90 -> 91 ;
92 [label="gini = 0.0\nsamples = 1\nvalue = [0, 1]"] ;
90 -> 92 ;
93 [label="gini = 0.0\nsamples = 3\nvalue = [0, 3]"] ;
89 -> 93 ;
94 [label="X[3] <= -0.584\ngini = 0.444\nsamples = 15\nvalue = [5, 10]"] ;
48 -> 94 ;
95 [label="X[20] <= 0.324\ngini = 0.444\nsamples = 6\nvalue = [4, 2]"] ;
94 -> 95 ;
96 [label="gini = 0.0\nsamples = 2\nvalue = [0, 2]"] ;
95 -> 96 ;
97 [label="gini = 0.0\nsamples = 4\nvalue = [4, 0]"] ;
95 -> 97 ;
98 [label="X[7] <= -0.063\ngini = 0.198\nsamples = 9\nvalue = [1, 8]"] ;
94 -> 98 ;
99 [label="X[7] <= -0.378\ngini = 0.5\nsamples = 2\nvalue = [1, 1]"] ;
98 -> 99 ;
100 [label="gini = 0.0\nsamples = 1\nvalue = [0, 1]"] ;
99 -> 100 ;
101 [label="gini = 0.0\nsamples = 1\nvalue = [1, 0]"] ;
99 -> 101 ;
102 [label="gini = 0.0\nsamples = 7\nvalue = [0, 7]"] ;
98 -> 102 ;
103 [label="X[10] <= -0.1\ngini = 0.248\nsamples = 62\nvalue = [9, 53]"] ;
1 -> 103 ;
104 [label="X[1] <= 0.321\ngini = 0.417\nsamples = 27\nvalue = [8, 19]"] ;
103 -> 104 ;
105 [label="X[1] <= -0.357\ngini = 0.488\nsamples = 19\nvalue = [8, 11]"] ;
104 -> 105 ;
106 [label="X[4] <= 0.287\ngini = 0.219\nsamples = 8\nvalue = [1, 7]"] ;
105 -> 106 ;
107 [label="gini = 0.0\nsamples = 6\nvalue = [0, 6]"] ;
106 -> 107 ;
108 [label="X[8] <= 0.649\ngini = 0.5\nsamples = 2\nvalue = [1, 1]"] ;
106 -> 108 ;
109 [label="gini = 0.0\nsamples = 1\nvalue = [1, 0]"] ;
108 -> 109 ;
110 [label="gini = 0.0\nsamples = 1\nvalue = [0, 1]"] ;
108 -> 110 ;
111 [label="X[9] <= 0.652\ngini = 0.463\nsamples = 11\nvalue = [7, 4]"] ;
105 -> 111 ;
112 [label="X[2] <= 1.205\ngini = 0.346\nsamples = 9\nvalue = [7, 2]"] ;
111 -> 112 ;
113 [label="X[17] <= 0.074\ngini = 0.219\nsamples = 8\nvalue = [7, 1]"] ;
112 -> 113 ;
114 [label="gini = 0.0\nsamples = 7\nvalue = [7, 0]"] ;
113 -> 114 ;
115 [label="gini = 0.0\nsamples = 1\nvalue = [0, 1]"] ;
113 -> 115 ;
116 [label="gini = 0.0\nsamples = 1\nvalue = [0, 1]"] ;
112 -> 116 ;
117 [label="gini = 0.0\nsamples = 2\nvalue = [0, 2]"] ;
111 -> 117 ;
118 [label="gini = 0.0\nsamples = 8\nvalue = [0, 8]"] ;
104 -> 118 ;
119 [label="X[1] <= -1.497\ngini = 0.056\nsamples = 35\nvalue = [1, 34]"] ;
103 -> 119 ;
120 [label="X[22] <= -0.197\ngini = 0.375\nsamples = 4\nvalue = [1, 3]"] ;
119 -> 120 ;
121 [label="gini = 0.0\nsamples = 1\nvalue = [1, 0]"] ;
120 -> 121 ;
122 [label="gini = 0.0\nsamples = 3\nvalue = [0, 3]"] ;
120 -> 122 ;
123 [label="gini = 0.0\nsamples = 31\nvalue = [0, 31]"] ;
119 -> 123 ;
124 [label="X[9] <= -0.47\ngini = 0.235\nsamples = 1002\nvalue = [136, 866]"] ;
0 -> 124 [labeldistance=2.5, labelangle=-45, headlabel="False"] ;
125 [label="X[13] <= -0.21\ngini = 0.448\nsamples = 346\nvalue = [117, 229]"] ;
124 -> 125 ;
126 [label="X[19] <= -0.194\ngini = 0.467\nsamples = 105\nvalue = [66, 39]"] ;
125 -> 126 ;
127 [label="X[7] <= 0.258\ngini = 0.475\nsamples = 36\nvalue = [14, 22]"] ;
126 -> 127 ;
128 [label="X[18] <= -0.002\ngini = 0.499\nsamples = 25\nvalue = [13, 12]"] ;
127 -> 128 ;
129 [label="X[14] <= -0.562\ngini = 0.375\nsamples = 12\nvalue = [3, 9]"] ;
128 -> 129 ;
130 [label="gini = 0.0\nsamples = 2\nvalue = [2, 0]"] ;
129 -> 130 ;
131 [label="X[2] <= 1.703\ngini = 0.18\nsamples = 10\nvalue = [1, 9]"] ;
129 -> 131 ;
132 [label="gini = 0.0\nsamples = 9\nvalue = [0, 9]"] ;
131 -> 132 ;
133 [label="gini = 0.0\nsamples = 1\nvalue = [1, 0]"] ;
131 -> 133 ;
134 [label="X[15] <= -0.197\ngini = 0.355\nsamples = 13\nvalue = [10, 3]"] ;
128 -> 134 ;
135 [label="gini = 0.0\nsamples = 10\nvalue = [10, 0]"] ;
134 -> 135 ;
136 [label="gini = 0.0\nsamples = 3\nvalue = [0, 3]"] ;
134 -> 136 ;
137 [label="X[22] <= -0.197\ngini = 0.165\nsamples = 11\nvalue = [1, 10]"] ;
127 -> 137 ;
138 [label="X[20] <= 0.324\ngini = 0.5\nsamples = 2\nvalue = [1, 1]"] ;
137 -> 138 ;
139 [label="gini = 0.0\nsamples = 1\nvalue = [0, 1]"] ;
138 -> 139 ;
140 [label="gini = 0.0\nsamples = 1\nvalue = [1, 0]"] ;
138 -> 140 ;
141 [label="gini = 0.0\nsamples = 9\nvalue = [0, 9]"] ;
137 -> 141 ;
142 [label="X[3] <= -2.157\ngini = 0.371\nsamples = 69\nvalue = [52, 17]"] ;
126 -> 142 ;
143 [label="gini = 0.0\nsamples = 2\nvalue = [0, 2]"] ;
142 -> 143 ;
144 [label="X[11] <= 0.556\ngini = 0.348\nsamples = 67\nvalue = [52, 15]"] ;
142 -> 144 ;
145 [label="X[5] <= -0.075\ngini = 0.296\nsamples = 61\nvalue = [50, 11]"] ;
144 -> 145 ;
146 [label="X[1] <= 0.73\ngini = 0.444\nsamples = 21\nvalue = [14, 7]"] ;
145 -> 146 ;
147 [label="X[12] <= 0.014\ngini = 0.497\nsamples = 13\nvalue = [6, 7]"] ;
146 -> 147 ;
148 [label="X[14] <= 0.36\ngini = 0.32\nsamples = 5\nvalue = [4, 1]"] ;
147 -> 148 ;
149 [label="gini = 0.0\nsamples = 4\nvalue = [4, 0]"] ;
148 -> 149 ;
150 [label="gini = 0.0\nsamples = 1\nvalue = [0, 1]"] ;
148 -> 150 ;
151 [label="X[4] <= -0.912\ngini = 0.375\nsamples = 8\nvalue = [2, 6]"] ;
147 -> 151 ;
152 [label="X[7] <= 0.895\ngini = 0.444\nsamples = 3\nvalue = [2, 1]"] ;
151 -> 152 ;
153 [label="gini = 0.0\nsamples = 2\nvalue = [2, 0]"] ;
152 -> 153 ;
154 [label="gini = 0.0\nsamples = 1\nvalue = [0, 1]"] ;
152 -> 154 ;
155 [label="gini = 0.0\nsamples = 5\nvalue = [0, 5]"] ;
151 -> 155 ;
156 [label="gini = 0.0\nsamples = 8\nvalue = [8, 0]"] ;
146 -> 156 ;
157 [label="X[1] <= 0.88\ngini = 0.18\nsamples = 40\nvalue = [36, 4]"] ;
145 -> 157 ;
158 [label="X[17] <= 0.074\ngini = 0.108\nsamples = 35\nvalue = [33, 2]"] ;
157 -> 158 ;
159 [label="X[16] <= -1.116\ngini = 0.059\nsamples = 33\nvalue = [32, 1]"] ;
158 -> 159 ;
160 [label="X[2] <= -0.074\ngini = 0.219\nsamples = 8\nvalue = [7, 1]"] ;
159 -> 160 ;
161 [label="X[2] <= -0.766\ngini = 0.5\nsamples = 2\nvalue = [1, 1]"] ;
160 -> 161 ;
162 [label="gini = 0.0\nsamples = 1\nvalue = [1, 0]"] ;
161 -> 162 ;
163 [label="gini = 0.0\nsamples = 1\nvalue = [0, 1]"] ;
161 -> 163 ;
164 [label="gini = 0.0\nsamples = 6\nvalue = [6, 0]"] ;
160 -> 164 ;
165 [label="gini = 0.0\nsamples = 25\nvalue = [25, 0]"] ;
159 -> 165 ;
166 [label="X[7] <= -0.063\ngini = 0.5\nsamples = 2\nvalue = [1, 1]"] ;
158 -> 166 ;
167 [label="gini = 0.0\nsamples = 1\nvalue = [1, 0]"] ;
166 -> 167 ;
168 [label="gini = 0.0\nsamples = 1\nvalue = [0, 1]"] ;
166 -> 168 ;
169 [label="X[3] <= -0.517\ngini = 0.48\nsamples = 5\nvalue = [3, 2]"] ;
157 -> 169 ;
170 [label="gini = 0.0\nsamples = 3\nvalue = [3, 0]"] ;
169 -> 170 ;
171 [label="gini = 0.0\nsamples = 2\nvalue = [0, 2]"] ;
169 -> 171 ;
172 [label="X[5] <= 0.674\ngini = 0.444\nsamples = 6\nvalue = [2, 4]"] ;
144 -> 172 ;
173 [label="gini = 0.0\nsamples = 3\nvalue = [0, 3]"] ;
172 -> 173 ;
174 [label="X[11] <= 1.358\ngini = 0.444\nsamples = 3\nvalue = [2, 1]"] ;
172 -> 174 ;
175 [label="gini = 0.0\nsamples = 2\nvalue = [2, 0]"] ;
174 -> 175 ;
176 [label="gini = 0.0\nsamples = 1\nvalue = [0, 1]"] ;
174 -> 176 ;
177 [label="X[21] <= -0.113\ngini = 0.334\nsamples = 241\nvalue = [51, 190]"] ;
125 -> 177 ;
178 [label="X[6] <= 2.491\ngini = 0.223\nsamples = 172\nvalue = [22, 150]"] ;
177 -> 178 ;
179 [label="X[13] <= 0.665\ngini = 0.208\nsamples = 170\nvalue = [20, 150]"] ;
178 -> 179 ;
180 [label="X[4] <= 1.537\ngini = 0.316\nsamples = 56\nvalue = [11, 45]"] ;
179 -> 180 ;
181 [label="X[6] <= -2.068\ngini = 0.278\nsamples = 54\nvalue = [9, 45]"] ;
180 -> 181 ;
182 [label="gini = 0.0\nsamples = 1\nvalue = [1, 0]"] ;
181 -> 182 ;
183 [label="X[5] <= 1.224\ngini = 0.256\nsamples = 53\nvalue = [8, 45]"] ;
181 -> 183 ;
184 [label="X[7] <= -0.063\ngini = 0.233\nsamples = 52\nvalue = [7, 45]"] ;
183 -> 184 ;
185 [label="X[6] <= -0.492\ngini = 0.426\nsamples = 13\nvalue = [4, 9]"] ;
184 -> 185 ;
186 [label="gini = 0.0\nsamples = 5\nvalue = [0, 5]"] ;
185 -> 186 ;
187 [label="X[4] <= -0.843\ngini = 0.5\nsamples = 8\nvalue = [4, 4]"] ;
185 -> 187 ;
188 [label="gini = 0.0\nsamples = 2\nvalue = [0, 2]"] ;
187 -> 188 ;
189 [label="X[20] <= 0.324\ngini = 0.444\nsamples = 6\nvalue = [4, 2]"] ;
187 -> 189 ;
190 [label="gini = 0.0\nsamples = 4\nvalue = [4, 0]"] ;
189 -> 190 ;
191 [label="gini = 0.0\nsamples = 2\nvalue = [0, 2]"] ;
189 -> 191 ;
192 [label="X[14] <= 0.36\ngini = 0.142\nsamples = 39\nvalue = [3, 36]"] ;
184 -> 192 ;
193 [label="gini = 0.0\nsamples = 23\nvalue = [0, 23]"] ;
192 -> 193 ;
194 [label="X[11] <= -0.247\ngini = 0.305\nsamples = 16\nvalue = [3, 13]"] ;
192 -> 194 ;
195 [label="X[22] <= -0.197\ngini = 0.49\nsamples = 7\nvalue = [3, 4]"] ;
194 -> 195 ;
196 [label="X[5] <= 0.059\ngini = 0.375\nsamples = 4\nvalue = [3, 1]"] ;
195 -> 196 ;
197 [label="gini = 0.0\nsamples = 3\nvalue = [3, 0]"] ;
196 -> 197 ;
198 [label="gini = 0.0\nsamples = 1\nvalue = [0, 1]"] ;
196 -> 198 ;
199 [label="gini = 0.0\nsamples = 3\nvalue = [0, 3]"] ;
195 -> 199 ;
200 [label="gini = 0.0\nsamples = 9\nvalue = [0, 9]"] ;
194 -> 200 ;
201 [label="gini = 0.0\nsamples = 1\nvalue = [1, 0]"] ;
183 -> 201 ;
202 [label="gini = 0.0\nsamples = 2\nvalue = [2, 0]"] ;
180 -> 202 ;
203 [label="X[2] <= 1.526\ngini = 0.145\nsamples = 114\nvalue = [9, 105]"] ;
179 -> 203 ;
204 [label="X[5] <= -2.657\ngini = 0.107\nsamples = 106\nvalue = [6, 100]"] ;
203 -> 204 ;
205 [label="X[2] <= -2.129\ngini = 0.5\nsamples = 2\nvalue = [1, 1]"] ;
204 -> 205 ;
206 [label="gini = 0.0\nsamples = 1\nvalue = [0, 1]"] ;
205 -> 206 ;
207 [label="gini = 0.0\nsamples = 1\nvalue = [1, 0]"] ;
205 -> 207 ;
208 [label="X[4] <= -1.281\ngini = 0.092\nsamples = 104\nvalue = [5, 99]"] ;
204 -> 208 ;
209 [label="X[7] <= -0.378\ngini = 0.291\nsamples = 17\nvalue = [3, 14]"] ;
208 -> 209 ;
210 [label="gini = 0.0\nsamples = 1\nvalue = [1, 0]"] ;
209 -> 210 ;
211 [label="X[2] <= -0.147\ngini = 0.219\nsamples = 16\nvalue = [2, 14]"] ;
209 -> 211 ;
212 [label="X[7] <= 0.614\ngini = 0.408\nsamples = 7\nvalue = [2, 5]"] ;
211 -> 212 ;
213 [label="gini = 0.0\nsamples = 1\nvalue = [1, 0]"] ;
212 -> 213 ;
214 [label="X[2] <= -1.236\ngini = 0.278\nsamples = 6\nvalue = [1, 5]"] ;
212 -> 214 ;
215 [label="X[3] <= -0.21\ngini = 0.5\nsamples = 2\nvalue = [1, 1]"] ;
214 -> 215 ;
216 [label="gini = 0.0\nsamples = 1\nvalue = [1, 0]"] ;
215 -> 216 ;
217 [label="gini = 0.0\nsamples = 1\nvalue = [0, 1]"] ;
215 -> 217 ;
218 [label="gini = 0.0\nsamples = 4\nvalue = [0, 4]"] ;
214 -> 218 ;
219 [label="gini = 0.0\nsamples = 9\nvalue = [0, 9]"] ;
211 -> 219 ;
220 [label="X[7] <= 1.643\ngini = 0.045\nsamples = 87\nvalue = [2, 85]"] ;
208 -> 220 ;
221 [label="X[10] <= 0.84\ngini = 0.024\nsamples = 82\nvalue = [1, 81]"] ;
220 -> 221 ;
222 [label="gini = 0.0\nsamples = 75\nvalue = [0, 75]"] ;
221 -> 222 ;
223 [label="X[0] <= 1.541\ngini = 0.245\nsamples = 7\nvalue = [1, 6]"] ;
221 -> 223 ;
224 [label="gini = 0.0\nsamples = 6\nvalue = [0, 6]"] ;
223 -> 224 ;
225 [label="gini = 0.0\nsamples = 1\nvalue = [1, 0]"] ;
223 -> 225 ;
226 [label="X[6] <= 1.648\ngini = 0.32\nsamples = 5\nvalue = [1, 4]"] ;
220 -> 226 ;
227 [label="gini = 0.0\nsamples = 4\nvalue = [0, 4]"] ;
226 -> 227 ;
228 [label="gini = 0.0\nsamples = 1\nvalue = [1, 0]"] ;
226 -> 228 ;
229 [label="X[0] <= 0.244\ngini = 0.469\nsamples = 8\nvalue = [3, 5]"] ;
203 -> 229 ;
230 [label="X[3] <= 0.141\ngini = 0.278\nsamples = 6\nvalue = [1, 5]"] ;
229 -> 230 ;
231 [label="gini = 0.0\nsamples = 1\nvalue = [1, 0]"] ;
230 -> 231 ;
232 [label="gini = 0.0\nsamples = 5\nvalue = [0, 5]"] ;
230 -> 232 ;
233 [label="gini = 0.0\nsamples = 2\nvalue = [2, 0]"] ;
229 -> 233 ;
234 [label="gini = 0.0\nsamples = 2\nvalue = [2, 0]"] ;
178 -> 234 ;
235 [label="X[15] <= 0.082\ngini = 0.487\nsamples = 69\nvalue = [29, 40]"] ;
177 -> 235 ;
236 [label="X[4] <= -0.531\ngini = 0.461\nsamples = 36\nvalue = [23, 13]"] ;
235 -> 236 ;
237 [label="X[4] <= -1.631\ngini = 0.153\nsamples = 12\nvalue = [11, 1]"] ;
236 -> 237 ;
238 [label="gini = 0.0\nsamples = 1\nvalue = [0, 1]"] ;
237 -> 238 ;
239 [label="gini = 0.0\nsamples = 11\nvalue = [11, 0]"] ;
237 -> 239 ;
240 [label="X[1] <= 0.772\ngini = 0.5\nsamples = 24\nvalue = [12, 12]"] ;
236 -> 240 ;
241 [label="X[4] <= 0.211\ngini = 0.48\nsamples = 20\nvalue = [12, 8]"] ;
240 -> 241 ;
242 [label="X[1] <= 0.473\ngini = 0.444\nsamples = 9\nvalue = [3, 6]"] ;
241 -> 242 ;
243 [label="X[14] <= 0.36\ngini = 0.245\nsamples = 7\nvalue = [1, 6]"] ;
242 -> 243 ;
244 [label="gini = 0.0\nsamples = 5\nvalue = [0, 5]"] ;
243 -> 244 ;
245 [label="X[10] <= 0.37\ngini = 0.5\nsamples = 2\nvalue = [1, 1]"] ;
243 -> 245 ;
246 [label="gini = 0.0\nsamples = 1\nvalue = [0, 1]"] ;
245 -> 246 ;
247 [label="gini = 0.0\nsamples = 1\nvalue = [1, 0]"] ;
245 -> 247 ;
248 [label="gini = 0.0\nsamples = 2\nvalue = [2, 0]"] ;
242 -> 248 ;
249 [label="X[14] <= -0.562\ngini = 0.298\nsamples = 11\nvalue = [9, 2]"] ;
241 -> 249 ;
250 [label="X[4] <= 1.374\ngini = 0.444\nsamples = 3\nvalue = [1, 2]"] ;
249 -> 250 ;
251 [label="gini = 0.0\nsamples = 2\nvalue = [0, 2]"] ;
250 -> 251 ;
252 [label="gini = 0.0\nsamples = 1\nvalue = [1, 0]"] ;
250 -> 252 ;
253 [label="gini = 0.0\nsamples = 8\nvalue = [8, 0]"] ;
249 -> 253 ;
254 [label="gini = 0.0\nsamples = 4\nvalue = [0, 4]"] ;
240 -> 254 ;
255 [label="X[16] <= -0.288\ngini = 0.298\nsamples = 33\nvalue = [6, 27]"] ;
235 -> 255 ;
256 [label="X[13] <= 1.102\ngini = 0.48\nsamples = 5\nvalue = [3, 2]"] ;
255 -> 256 ;
257 [label="gini = 0.0\nsamples = 2\nvalue = [2, 0]"] ;
256 -> 257 ;
258 [label="X[1] <= 0.82\ngini = 0.444\nsamples = 3\nvalue = [1, 2]"] ;
256 -> 258 ;
259 [label="gini = 0.0\nsamples = 2\nvalue = [0, 2]"] ;
258 -> 259 ;
260 [label="gini = 0.0\nsamples = 1\nvalue = [1, 0]"] ;
258 -> 260 ;
261 [label="X[16] <= 0.954\ngini = 0.191\nsamples = 28\nvalue = [3, 25]"] ;
255 -> 261 ;
262 [label="gini = 0.0\nsamples = 15\nvalue = [0, 15]"] ;
261 -> 262 ;
263 [label="X[11] <= 1.091\ngini = 0.355\nsamples = 13\nvalue = [3, 10]"] ;
261 -> 263 ;
264 [label="X[6] <= 1.134\ngini = 0.278\nsamples = 12\nvalue = [2, 10]"] ;
263 -> 264 ;
265 [label="X[14] <= 0.36\ngini = 0.165\nsamples = 11\nvalue = [1, 10]"] ;
264 -> 265 ;
266 [label="gini = 0.0\nsamples = 7\nvalue = [0, 7]"] ;
265 -> 266 ;
267 [label="X[10] <= 0.37\ngini = 0.375\nsamples = 4\nvalue = [1, 3]"] ;
265 -> 267 ;
268 [label="gini = 0.0\nsamples = 1\nvalue = [1, 0]"] ;
267 -> 268 ;
269 [label="gini = 0.0\nsamples = 3\nvalue = [0, 3]"] ;
267 -> 269 ;
270 [label="gini = 0.0\nsamples = 1\nvalue = [1, 0]"] ;
264 -> 270 ;
271 [label="gini = 0.0\nsamples = 1\nvalue = [1, 0]"] ;
263 -> 271 ;
272 [label="X[2] <= 2.726\ngini = 0.056\nsamples = 656\nvalue = [19, 637]"] ;
124 -> 272 ;
273 [label="X[11] <= -0.515\ngini = 0.053\nsamples = 655\nvalue = [18, 637]"] ;
272 -> 273 ;
274 [label="X[15] <= -0.477\ngini = 0.134\nsamples = 180\nvalue = [13, 167]"] ;
273 -> 274 ;
275 [label="X[12] <= -0.883\ngini = 0.257\nsamples = 66\nvalue = [10, 56]"] ;
274 -> 275 ;
276 [label="X[9] <= 0.091\ngini = 0.5\nsamples = 8\nvalue = [4, 4]"] ;
275 -> 276 ;
277 [label="gini = 0.0\nsamples = 3\nvalue = [3, 0]"] ;
276 -> 277 ;
278 [label="X[8] <= -0.104\ngini = 0.32\nsamples = 5\nvalue = [1, 4]"] ;
276 -> 278 ;
279 [label="gini = 0.0\nsamples = 1\nvalue = [1, 0]"] ;
278 -> 279 ;
280 [label="gini = 0.0\nsamples = 4\nvalue = [0, 4]"] ;
278 -> 280 ;
281 [label="X[9] <= 1.213\ngini = 0.185\nsamples = 58\nvalue = [6, 52]"] ;
275 -> 281 ;
282 [label="X[3] <= -2.026\ngini = 0.135\nsamples = 55\nvalue = [4, 51]"] ;
281 -> 282 ;
283 [label="X[22] <= -0.197\ngini = 0.5\nsamples = 2\nvalue = [1, 1]"] ;
282 -> 283 ;
284 [label="gini = 0.0\nsamples = 1\nvalue = [1, 0]"] ;
283 -> 284 ;
285 [label="gini = 0.0\nsamples = 1\nvalue = [0, 1]"] ;
283 -> 285 ;
286 [label="X[6] <= 1.648\ngini = 0.107\nsamples = 53\nvalue = [3, 50]"] ;
282 -> 286 ;
287 [label="X[2] <= 1.604\ngini = 0.075\nsamples = 51\nvalue = [2, 49]"] ;
286 -> 287 ;
288 [label="X[3] <= -1.049\ngini = 0.041\nsamples = 48\nvalue = [1, 47]"] ;
287 -> 288 ;
289 [label="X[2] <= -0.074\ngini = 0.32\nsamples = 5\nvalue = [1, 4]"] ;
288 -> 289 ;
290 [label="gini = 0.0\nsamples = 4\nvalue = [0, 4]"] ;
289 -> 290 ;
291 [label="gini = 0.0\nsamples = 1\nvalue = [1, 0]"] ;
289 -> 291 ;
292 [label="gini = 0.0\nsamples = 43\nvalue = [0, 43]"] ;
288 -> 292 ;
293 [label="X[7] <= 0.104\ngini = 0.444\nsamples = 3\nvalue = [1, 2]"] ;
287 -> 293 ;
294 [label="gini = 0.0\nsamples = 2\nvalue = [0, 2]"] ;
293 -> 294 ;
295 [label="gini = 0.0\nsamples = 1\nvalue = [1, 0]"] ;
293 -> 295 ;
296 [label="X[7] <= 0.853\ngini = 0.5\nsamples = 2\nvalue = [1, 1]"] ;
286 -> 296 ;
297 [label="gini = 0.0\nsamples = 1\nvalue = [0, 1]"] ;
296 -> 297 ;
298 [label="gini = 0.0\nsamples = 1\nvalue = [1, 0]"] ;
296 -> 298 ;
299 [label="X[12] <= 0.014\ngini = 0.444\nsamples = 3\nvalue = [2, 1]"] ;
281 -> 299 ;
300 [label="gini = 0.0\nsamples = 1\nvalue = [0, 1]"] ;
299 -> 300 ;
301 [label="gini = 0.0\nsamples = 2\nvalue = [2, 0]"] ;
299 -> 301 ;
302 [label="X[17] <= 1.116\ngini = 0.051\nsamples = 114\nvalue = [3, 111]"] ;
274 -> 302 ;
303 [label="X[4] <= 1.032\ngini = 0.019\nsamples = 103\nvalue = [1, 102]"] ;
302 -> 303 ;
304 [label="gini = 0.0\nsamples = 94\nvalue = [0, 94]"] ;
303 -> 304 ;
305 [label="X[4] <= 1.205\ngini = 0.198\nsamples = 9\nvalue = [1, 8]"] ;
303 -> 305 ;
306 [label="gini = 0.0\nsamples = 1\nvalue = [1, 0]"] ;
305 -> 306 ;
307 [label="gini = 0.0\nsamples = 8\nvalue = [0, 8]"] ;
305 -> 307 ;
308 [label="X[14] <= -0.562\ngini = 0.298\nsamples = 11\nvalue = [2, 9]"] ;
302 -> 308 ;
309 [label="gini = 0.0\nsamples = 8\nvalue = [0, 8]"] ;
308 -> 309 ;
310 [label="X[21] <= -0.113\ngini = 0.444\nsamples = 3\nvalue = [2, 1]"] ;
308 -> 310 ;
311 [label="gini = 0.0\nsamples = 2\nvalue = [2, 0]"] ;
310 -> 311 ;
312 [label="gini = 0.0\nsamples = 1\nvalue = [0, 1]"] ;
310 -> 312 ;
313 [label="X[1] <= 1.916\ngini = 0.021\nsamples = 475\nvalue = [5, 470]"] ;
273 -> 313 ;
314 [label="X[4] <= 1.937\ngini = 0.013\nsamples = 458\nvalue = [3, 455]"] ;
313 -> 314 ;
315 [label="X[0] <= 2.587\ngini = 0.009\nsamples = 451\nvalue = [2, 449]"] ;
314 -> 315 ;
316 [label="X[1] <= -0.857\ngini = 0.005\nsamples = 442\nvalue = [1, 441]"] ;
315 -> 316 ;
317 [label="X[1] <= -0.988\ngini = 0.031\nsamples = 64\nvalue = [1, 63]"] ;
316 -> 317 ;
318 [label="gini = 0.0\nsamples = 51\nvalue = [0, 51]"] ;
317 -> 318 ;
319 [label="X[4] <= -0.685\ngini = 0.142\nsamples = 13\nvalue = [1, 12]"] ;
317 -> 319 ;
320 [label="X[5] <= 0.365\ngini = 0.5\nsamples = 2\nvalue = [1, 1]"] ;
319 -> 320 ;
321 [label="gini = 0.0\nsamples = 1\nvalue = [1, 0]"] ;
320 -> 321 ;
322 [label="gini = 0.0\nsamples = 1\nvalue = [0, 1]"] ;
320 -> 322 ;
323 [label="gini = 0.0\nsamples = 11\nvalue = [0, 11]"] ;
319 -> 323 ;
324 [label="gini = 0.0\nsamples = 378\nvalue = [0, 378]"] ;
316 -> 324 ;
325 [label="X[20] <= 0.324\ngini = 0.198\nsamples = 9\nvalue = [1, 8]"] ;
315 -> 325 ;
326 [label="gini = 0.0\nsamples = 8\nvalue = [0, 8]"] ;
325 -> 326 ;
327 [label="gini = 0.0\nsamples = 1\nvalue = [1, 0]"] ;
325 -> 327 ;
328 [label="X[1] <= -1.06\ngini = 0.245\nsamples = 7\nvalue = [1, 6]"] ;
314 -> 328 ;
329 [label="gini = 0.0\nsamples = 1\nvalue = [1, 0]"] ;
328 -> 329 ;
330 [label="gini = 0.0\nsamples = 6\nvalue = [0, 6]"] ;
328 -> 330 ;
331 [label="X[6] <= -0.018\ngini = 0.208\nsamples = 17\nvalue = [2, 15]"] ;
313 -> 331 ;
332 [label="gini = 0.0\nsamples = 1\nvalue = [1, 0]"] ;
331 -> 332 ;
333 [label="X[2] <= 0.561\ngini = 0.117\nsamples = 16\nvalue = [1, 15]"] ;
331 -> 333 ;
334 [label="gini = 0.0\nsamples = 15\nvalue = [0, 15]"] ;
333 -> 334 ;
335 [label="gini = 0.0\nsamples = 1\nvalue = [1, 0]"] ;
333 -> 335 ;
336 [label="gini = 0.0\nsamples = 1\nvalue = [1, 0]"] ;
272 -> 336 ;
}